digraph Tree {
node [shape=box, style="filled, rounded", color="black", fontname=helvetica] ;
edge [fontname=helvetica] ;
0 [label="Sex <= 0.5\ngini = 0.486\nsamples = 535\nvalue = [312, 223]", fillcolor="#e5813949"] ;
1 [label="Pclass <= 1.5\ngini = 0.331\nsamples = 335\nvalue = [265, 70]", fillcolor="#e58139bc"] ;
0 -> 1 [labeldistance=2.5, labelangle=45, headlabel="True"] ;
2 [label="Age <= 36.5\ngini = 0.481\nsamples = 77\nvalue = [46, 31]", fillcolor="#e5813953"] ;
1 -> 2 ;
3 [label="Fare <= 37.812\ngini = 0.475\nsamples = 31\nvalue = [12, 19]", fillcolor="#399de55e"] ;
2 -> 3 ;
4 [label="gini = 0.0\nsamples = 7\nvalue = [0, 7]", fillcolor="#399de5ff"] ;
3 -> 4 ;
5 [label="Age <= 17.5\ngini = 0.5\nsamples = 24\nvalue = [12, 12]", fillcolor="#e5813900"] ;
3 -> 5 ;
6 [label="gini = 0.0\nsamples = 4\nvalue = [0, 4]", fillcolor="#399de5ff"] ;
5 -> 6 ;
7 [label="gini = 0.48\nsamples = 20\nvalue = [12, 8]", fillcolor="#e5813955"] ;
5 -> 7 ;
8 [label="Age <= 75.5\ngini = 0.386\nsamples = 46\nvalue = [34, 12]", fillcolor="#e58139a5"] ;
2 -> 8 ;
9 [label="Age <= 53.0\ngini = 0.369\nsamples = 45\nvalue = [34, 11]", fillcolor="#e58139ac"] ;
8 -> 9 ;
10 [label="gini = 0.43\nsamples = 32\nvalue = [22, 10]", fillcolor="#e581398b"] ;
9 -> 10 ;
11 [label="gini = 0.142\nsamples = 13\nvalue = [12, 1]", fillcolor="#e58139ea"] ;
9 -> 11 ;
12 [label="gini = 0.0\nsamples = 1\nvalue = [0, 1]", fillcolor="#399de5ff"] ;
8 -> 12 ;
13 [label="Age <= 9.5\ngini = 0.257\nsamples = 258\nvalue = [219, 39]", fillcolor="#e58139d2"] ;
1 -> 13 ;
14 [label="SibSp <= 2.5\ngini = 0.499\nsamples = 19\nvalue = [9, 10]", fillcolor="#399de519"] ;
13 -> 14 ;
15 [label="gini = 0.0\nsamples = 9\nvalue = [0, 9]", fillcolor="#399de5ff"] ;
14 -> 15 ;
16 [label="Parch <= 1.5\ngini = 0.18\nsamples = 10\nvalue = [9, 1]", fillcolor="#e58139e3"] ;
14 -> 16 ;
17 [label="gini = 0.0\nsamples = 6\nvalue = [6, 0]", fillcolor="#e58139ff"] ;
16 -> 17 ;
18 [label="gini = 0.375\nsamples = 4\nvalue = [3, 1]", fillcolor="#e58139aa"] ;
16 -> 18 ;
19 [label="Parch <= 0.5\ngini = 0.213\nsamples = 239\nvalue = [210, 29]", fillcolor="#e58139dc"] ;
13 -> 19 ;
20 [label="Age <= 14.0\ngini = 0.234\nsamples = 214\nvalue = [185, 29]", fillcolor="#e58139d7"] ;
19 -> 20 ;
21 [label="gini = 0.5\nsamples = 2\nvalue = [1, 1]", fillcolor="#e5813900"] ;
20 -> 21 ;
22 [label="gini = 0.229\nsamples = 212\nvalue = [184, 28]", fillcolor="#e58139d8"] ;
20 -> 22 ;
23 [label="gini = 0.0\nsamples = 25\nvalue = [25, 0]", fillcolor="#e58139ff"] ;
19 -> 23 ;
24 [label="Pclass <= 2.5\ngini = 0.36\nsamples = 200\nvalue = [47, 153]", fillcolor="#399de5b1"] ;
0 -> 24 [labeldistance=2.5, labelangle=-45, headlabel="False"] ;
25 [label="Age <= 2.5\ngini = 0.12\nsamples = 125\nvalue = [8, 117]", fillcolor="#399de5ee"] ;
24 -> 25 ;
26 [label="Pclass <= 1.5\ngini = 0.5\nsamples = 2\nvalue = [1, 1]", fillcolor="#e5813900"] ;
25 -> 26 ;
27 [label="gini = 0.0\nsamples = 1\nvalue = [1, 0]", fillcolor="#e58139ff"] ;
26 -> 27 ;
28 [label="gini = 0.0\nsamples = 1\nvalue = [0, 1]", fillcolor="#399de5ff"] ;
26 -> 28 ;
29 [label="Fare <= 28.856\ngini = 0.107\nsamples = 123\nvalue = [7, 116]", fillcolor="#399de5f0"] ;
25 -> 29 ;
30 [label="Fare <= 28.231\ngini = 0.219\nsamples = 56\nvalue = [7, 49]", fillcolor="#399de5db"] ;
29 -> 30 ;
31 [label="gini = 0.194\nsamples = 55\nvalue = [6, 49]", fillcolor="#399de5e0"] ;
30 -> 31 ;
32 [label="gini = 0.0\nsamples = 1\nvalue = [1, 0]", fillcolor="#e58139ff"] ;
30 -> 32 ;
33 [label="gini = 0.0\nsamples = 67\nvalue = [0, 67]", fillcolor="#399de5ff"] ;
29 -> 33 ;
34 [label="Fare <= 20.8\ngini = 0.499\nsamples = 75\nvalue = [39, 36]", fillcolor="#e5813914"] ;
24 -> 34 ;
35 [label="Age <= 27.5\ngini = 0.491\nsamples = 60\nvalue = [26, 34]", fillcolor="#399de53c"] ;
34 -> 35 ;
36 [label="Parch <= 0.5\ngini = 0.458\nsamples = 45\nvalue = [16, 29]", fillcolor="#399de572"] ;
35 -> 36 ;
37 [label="gini = 0.498\nsamples = 30\nvalue = [14, 16]", fillcolor="#399de520"] ;
36 -> 37 ;
38 [label="gini = 0.231\nsamples = 15\nvalue = [2, 13]", fillcolor="#399de5d8"] ;
36 -> 38 ;
39 [label="Fare <= 14.85\ngini = 0.444\nsamples = 15\nvalue = [10, 5]", fillcolor="#e581397f"] ;
35 -> 39 ;
40 [label="gini = 0.198\nsamples = 9\nvalue = [8, 1]", fillcolor="#e58139df"] ;
39 -> 40 ;
41 [label="gini = 0.444\nsamples = 6\nvalue = [2, 4]", fillcolor="#399de57f"] ;
39 -> 41 ;
42 [label="Fare <= 31.331\ngini = 0.231\nsamples = 15\nvalue = [13, 2]", fillcolor="#e58139d8"] ;
34 -> 42 ;
43 [label="gini = 0.0\nsamples = 9\nvalue = [9, 0]", fillcolor="#e58139ff"] ;
42 -> 43 ;
44 [label="Fare <= 32.881\ngini = 0.444\nsamples = 6\nvalue = [4, 2]", fillcolor="#e581397f"] ;
42 -> 44 ;
45 [label="gini = 0.0\nsamples = 2\nvalue = [0, 2]", fillcolor="#399de5ff"] ;
44 -> 45 ;
46 [label="gini = 0.0\nsamples = 4\nvalue = [4, 0]", fillcolor="#e58139ff"] ;
44 -> 46 ;
}